|--- text::sad <= 0.5000
|   |--- What season does this art piece remind you of?=Winter <= 0.5000
|   |   |--- text::anxious <= 0.5000
|   |   |   |--- If you could purchase this painting, which room would you put that painting in?=Dining room <= 0.5000
|   |   |   |   |--- text::that <= 0.5000
|   |   |   |   |   |--- text::night <= 0.5000
|   |   |   |   |   |   |--- text::calm and <= 0.5000
|   |   |   |   |   |   |   |--- text::there's <= 0.5000
|   |   |   |   |   |   |   |   |--- colours <= 3.5000
|   |   |   |   |   |   |   |   |   |--- text::peaceful light <= 0.5000
|   |   |   |   |   |   |   |   |   |   |--- text::amazed <= 0.5000
|   |   |   |   |   |   |   |   |   |   |   |--- truncated branch of depth 34
|   |   |   |   |   |   |   |   |   |   |--- text::amazed >  0.5000
|   |   |   |   |   |   |   |   |   |   |   |--- class: 1.0
|   |   |   |   |   |   |   |   |   |--- text::peaceful light >  0.5000
|   |   |   |   |   |   |   |   |   |   |--- class: 1.0
|   |   |   |   |   |   |   |   |--- colours >  3.5000
|   |   |   |   |   |   |   |   |   |--- text::nice <= 0.5000
|   |   |   |   |   |   |   |   |   |   |--- text::time <= 0.5000
|   |   |   |   |   |   |   |   |   |   |   |--- truncated branch of depth 25
|   |   |   |   |   |   |   |   |   |   |--- text::time >  0.5000
|   |   |   |   |   |   |   |   |   |   |   |--- truncated branch of depth 3
|   |   |   |   |   |   |   |   |   |--- text::nice >  0.5000
|   |   |   |   |   |   |   |   |   |   |--- class: 0.0
|   |   |   |   |   |   |   |--- text::there's >  0.5000
|   |   |   |   |   |   |   |   |--- text::too <= 0.5000
|   |   |   |   |   |   |   |   |   |--- intensity <= 8.5000
|   |   |   |   |   |   |   |   |   |   |--- class: 2.0
|   |   |   |   |   |   |   |   |   |--- intensity >  8.5000
|   |   |   |   |   |   |   |   |   |   |--- class: 1.0
|   |   |   |   |   |   |   |   |--- text::too >  0.5000
|   |   |   |   |   |   |   |   |   |--- class: 0.0
|   |   |   |   |   |   |--- text::calm and >  0.5000
|   |   |   |   |   |   |   |--- text::reality <= 0.5000
|   |   |   |   |   |   |   |   |--- text::and calming <= 0.5000
|   |   |   |   |   |   |   |   |   |--- text::and gloomy <= 0.5000
|   |   |   |   |   |   |   |   |   |   |--- text::this <= 0.5000
|   |   |   |   |   |   |   |   |   |   |   |--- truncated branch of depth 8
|   |   |   |   |   |   |   |   |   |   |--- text::this >  0.5000
|   |   |   |   |   |   |   |   |   |   |   |--- truncated branch of depth 5
|   |   |   |   |   |   |   |   |   |--- text::and gloomy >  0.5000
|   |   |   |   |   |   |   |   |   |   |--- class: 1.0
|   |   |   |   |   |   |   |   |--- text::and calming >  0.5000
|   |   |   |   |   |   |   |   |   |--- class: 0.0
|   |   |   |   |   |   |   |--- text::reality >  0.5000
|   |   |   |   |   |   |   |   |--- class: 2.0
|   |   |   |   |   |--- text::night >  0.5000
|   |   |   |   |   |   |--- text::melancholic feeling <= 0.5000
|   |   |   |   |   |   |   |--- class: 1.0
|   |   |   |   |   |   |--- text::melancholic feeling >  0.5000
|   |   |   |   |   |   |   |--- class: 1.0
|   |   |   |   |--- text::that >  0.5000
|   |   |   |   |   |--- text::full of <= 0.5000
|   |   |   |   |   |   |--- colours_x_objects <= 7.0000
|   |   |   |   |   |   |   |--- text::long <= 0.5000
|   |   |   |   |   |   |   |   |--- text::calm with <= 0.5000
|   |   |   |   |   |   |   |   |   |--- text::that would <= 0.5000
|   |   |   |   |   |   |   |   |   |   |--- text::sense of <= 0.5000
|   |   |   |   |   |   |   |   |   |   |   |--- truncated branch of depth 3
|   |   |   |   |   |   |   |   |   |   |--- text::sense of >  0.5000
|   |   |   |   |   |   |   |   |   |   |   |--- class: 0.0
|   |   |   |   |   |   |   |   |   |--- text::that would >  0.5000
|   |   |   |   |   |   |   |   |   |   |--- class: 0.0
|   |   |   |   |   |   |   |   |--- text::calm with >  0.5000
|   |   |   |   |   |   |   |   |   |--- class: 1.0
|   |   |   |   |   |   |   |--- text::long >  0.5000
|   |   |   |   |   |   |   |   |--- class: 2.0
|   |   |   |   |   |   |--- colours_x_objects >  7.0000
|   |   |   |   |   |   |   |--- text::any <= 0.5000
|   |   |   |   |   |   |   |   |--- If you could purchase this painting, which room would you put that painting in?__count <= 1.5000
|   |   |   |   |   |   |   |   |   |--- text::happiness <= 0.5000
|   |   |   |   |   |   |   |   |   |   |--- text::create calm <= 0.5000
|   |   |   |   |   |   |   |   |   |   |   |--- truncated branch of depth 6
|   |   |   |   |   |   |   |   |   |   |--- text::create calm >  0.5000
|   |   |   |   |   |   |   |   |   |   |   |--- class: 1.0
|   |   |   |   |   |   |   |   |   |--- text::happiness >  0.5000
|   |   |   |   |   |   |   |   |   |   |--- text::moves on <= 0.5000
|   |   |   |   |   |   |   |   |   |   |   |--- truncated branch of depth 2
|   |   |   |   |   |   |   |   |   |   |--- text::moves on >  0.5000
|   |   |   |   |   |   |   |   |   |   |   |--- class: 2.0
|   |   |   |   |   |   |   |   |--- If you could purchase this painting, which room would you put that painting in?__count >  1.5000
|   |   |   |   |   |   |   |   |   |--- text::side <= 0.5000
|   |   |   |   |   |   |   |   |   |   |--- text::large <= 0.5000
|   |   |   |   |   |   |   |   |   |   |   |--- truncated branch of depth 11
|   |   |   |   |   |   |   |   |   |   |--- text::large >  0.5000
|   |   |   |   |   |   |   |   |   |   |   |--- class: 1.0
|   |   |   |   |   |   |   |   |   |--- text::side >  0.5000
|   |   |   |   |   |   |   |   |   |   |--- class: 1.0
|   |   |   |   |   |   |   |--- text::any >  0.5000
|   |   |   |   |   |   |   |   |--- class: 0.0
|   |   |   |   |   |--- text::full of >  0.5000
|   |   |   |   |   |   |--- class: 0.0
|   |   |   |--- If you could purchase this painting, which room would you put that painting in?=Dining room >  0.5000
|   |   |   |   |--- text::pizza calm <= 0.5000
|   |   |   |   |   |--- text::feel happy <= 0.5000
|   |   |   |   |   |   |--- text::beautiful night <= 0.5000
|   |   |   |   |   |   |   |--- text::that <= 0.5000
|   |   |   |   |   |   |   |   |--- text::bowl the <= 0.5000
|   |   |   |   |   |   |   |   |   |--- text::background <= 0.5000
|   |   |   |   |   |   |   |   |   |   |--- text::lot <= 0.5000
|   |   |   |   |   |   |   |   |   |   |   |--- truncated branch of depth 51
|   |   |   |   |   |   |   |   |   |   |--- text::lot >  0.5000
|   |   |   |   |   |   |   |   |   |   |   |--- truncated branch of depth 3
|   |   |   |   |   |   |   |   |   |--- text::background >  0.5000
|   |   |   |   |   |   |   |   |   |   |--- text::relaxed <= 0.5000
|   |   |   |   |   |   |   |   |   |   |   |--- truncated branch of depth 2
|   |   |   |   |   |   |   |   |   |   |--- text::relaxed >  0.5000
|   |   |   |   |   |   |   |   |   |   |   |--- class: 1.0
|   |   |   |   |   |   |   |   |--- text::bowl the >  0.5000
|   |   |   |   |   |   |   |   |   |--- class: 1.0
|   |   |   |   |   |   |   |--- text::that >  0.5000
|   |   |   |   |   |   |   |   |--- text::and eerie <= 0.5000
|   |   |   |   |   |   |   |   |   |--- text::and <= 4.5000
|   |   |   |   |   |   |   |   |   |   |--- text::viewing the <= 0.5000
|   |   |   |   |   |   |   |   |   |   |   |--- truncated branch of depth 12
|   |   |   |   |   |   |   |   |   |   |--- text::viewing the >  0.5000
|   |   |   |   |   |   |   |   |   |   |   |--- class: 2.0
|   |   |   |   |   |   |   |   |   |--- text::and >  4.5000
|   |   |   |   |   |   |   |   |   |   |--- text::real world <= 0.5000
|   |   |   |   |   |   |   |   |   |   |   |--- truncated branch of depth 6
|   |   |   |   |   |   |   |   |   |   |--- text::real world >  0.5000
|   |   |   |   |   |   |   |   |   |   |   |--- class: 2.0
|   |   |   |   |   |   |   |   |--- text::and eerie >  0.5000
|   |   |   |   |   |   |   |   |   |--- class: 2.0
|   |   |   |   |   |   |--- text::beautiful night >  0.5000
|   |   |   |   |   |   |   |--- class: 1.0
|   |   |   |   |   |--- text::feel happy >  0.5000
|   |   |   |   |   |   |--- class: 0.0
|   |   |   |   |--- text::pizza calm >  0.5000
|   |   |   |   |   |--- class: 2.0
|   |   |--- text::anxious >  0.5000
|   |   |   |--- text::running out <= 0.5000
|   |   |   |   |--- text::sandwich <= 0.5000
|   |   |   |   |   |--- class: 2.0
|   |   |   |   |--- text::sandwich >  0.5000
|   |   |   |   |   |--- text::include <= 0.5000
|   |   |   |   |   |   |--- class: 2.0
|   |   |   |   |   |--- text::include >  0.5000
|   |   |   |   |   |   |--- class: 1.0
|   |   |   |--- text::running out >  0.5000
|   |   |   |   |--- class: 2.0
|   |--- What season does this art piece remind you of?=Winter >  0.5000
|   |   |--- text::old <= 0.5000
|   |   |   |--- text::down and <= 0.5000
|   |   |   |   |--- text::soundtrack would <= 0.5000
|   |   |   |   |   |--- text::calm spaghetti <= 0.5000
|   |   |   |   |   |   |--- text::peak <= 0.5000
|   |   |   |   |   |   |   |--- If you could purchase this painting, which room would you put that painting in?=Bedroom <= 0.5000
|   |   |   |   |   |   |   |   |--- text::or that <= 0.5000
|   |   |   |   |   |   |   |   |   |--- text::clocks being <= 0.5000
|   |   |   |   |   |   |   |   |   |   |--- text::single <= 0.5000
|   |   |   |   |   |   |   |   |   |   |   |--- truncated branch of depth 22
|   |   |   |   |   |   |   |   |   |   |--- text::single >  0.5000
|   |   |   |   |   |   |   |   |   |   |   |--- class: 2.0
|   |   |   |   |   |   |   |   |   |--- text::clocks being >  0.5000
|   |   |   |   |   |   |   |   |   |   |--- class: 2.0
|   |   |   |   |   |   |   |   |--- text::or that >  0.5000
|   |   |   |   |   |   |   |   |   |--- class: 2.0
|   |   |   |   |   |   |   |--- If you could purchase this painting, which room would you put that painting in?=Bedroom >  0.5000
|   |   |   |   |   |   |   |   |--- text::painting <= 0.5000
|   |   |   |   |   |   |   |   |   |--- text::as <= 0.5000
|   |   |   |   |   |   |   |   |   |   |--- text::anxious <= 0.5000
|   |   |   |   |   |   |   |   |   |   |   |--- truncated branch of depth 6
|   |   |   |   |   |   |   |   |   |   |--- text::anxious >  0.5000
|   |   |   |   |   |   |   |   |   |   |   |--- truncated branch of depth 2
|   |   |   |   |   |   |   |   |   |--- text::as >  0.5000
|   |   |   |   |   |   |   |   |   |   |--- If you could view this art in person, who would you want to view it with?__count <= 1.5000
|   |   |   |   |   |   |   |   |   |   |   |--- class: 2.0
|   |   |   |   |   |   |   |   |   |   |--- If you could view this art in person, who would you want to view it with?__count >  1.5000
|   |   |   |   |   |   |   |   |   |   |   |--- class: 1.0
|   |   |   |   |   |   |   |   |--- text::painting >  0.5000
|   |   |   |   |   |   |   |   |   |--- text::sense <= 0.5000
|   |   |   |   |   |   |   |   |   |   |--- text::every moment <= 0.5000
|   |   |   |   |   |   |   |   |   |   |   |--- truncated branch of depth 2
|   |   |   |   |   |   |   |   |   |   |--- text::every moment >  0.5000
|   |   |   |   |   |   |   |   |   |   |   |--- class: 2.0
|   |   |   |   |   |   |   |   |   |--- text::sense >  0.5000
|   |   |   |   |   |   |   |   |   |   |--- text::with <= 2.0000
|   |   |   |   |   |   |   |   |   |   |   |--- truncated branch of depth 2
|   |   |   |   |   |   |   |   |   |   |--- text::with >  2.0000
|   |   |   |   |   |   |   |   |   |   |   |--- class: 1.0
|   |   |   |   |   |   |--- text::peak >  0.5000
|   |   |   |   |   |   |   |--- class: 2.0
|   |   |   |   |   |--- text::calm spaghetti >  0.5000
|   |   |   |   |   |   |--- class: 0.0
|   |   |   |   |--- text::soundtrack would >  0.5000
|   |   |   |   |   |--- text::that would <= 0.5000
|   |   |   |   |   |   |--- text::strong <= 0.5000
|   |   |   |   |   |   |   |--- text::calm <= 0.5000
|   |   |   |   |   |   |   |   |--- If you could purchase this painting, which room would you put that painting in?=Living room <= 0.5000
|   |   |   |   |   |   |   |   |   |--- text::melting clocks <= 0.5000
|   |   |   |   |   |   |   |   |   |   |--- class: 1.0
|   |   |   |   |   |   |   |   |   |--- text::melting clocks >  0.5000
|   |   |   |   |   |   |   |   |   |   |--- class: 2.0
|   |   |   |   |   |   |   |   |--- If you could purchase this painting, which room would you put that painting in?=Living room >  0.5000
|   |   |   |   |   |   |   |   |   |--- class: 1.0
|   |   |   |   |   |   |   |--- text::calm >  0.5000
|   |   |   |   |   |   |   |   |--- class: 1.0
|   |   |   |   |   |   |--- text::strong >  0.5000
|   |   |   |   |   |   |   |--- class: 1.0
|   |   |   |   |   |--- text::that would >  0.5000
|   |   |   |   |   |   |--- class: 1.0
|   |   |   |--- text::down and >  0.5000
|   |   |   |   |--- class: 2.0
|   |   |--- text::old >  0.5000
|   |   |   |--- text::wine <= 0.5000
|   |   |   |   |--- text::me feel <= 0.5000
|   |   |   |   |   |--- intensity_x_objects <= 19.0000
|   |   |   |   |   |   |--- class: 1.0
|   |   |   |   |   |--- intensity_x_objects >  19.0000
|   |   |   |   |   |   |--- class: 2.0
|   |   |   |   |--- text::me feel >  0.5000
|   |   |   |   |   |--- class: 2.0
|   |   |   |--- text::wine >  0.5000
|   |   |   |   |--- class: 2.0
|--- text::sad >  0.5000
|   |--- If you could view this art in person, who would you want to view it with?=Family members <= 0.5000
|   |   |--- objects <= 2.5000
|   |   |   |--- text::sad ice <= 0.5000
|   |   |   |   |--- class: 2.0
|   |   |   |--- text::sad ice >  0.5000
|   |   |   |   |--- class: 1.0
|   |   |--- objects >  2.5000
|   |   |   |--- If you could purchase this painting, which room would you put that painting in?=Living room <= 0.5000
|   |   |   |   |--- text::everything <= 0.5000
|   |   |   |   |   |--- text::too much <= 0.5000
|   |   |   |   |   |   |--- This art piece makes me feel uneasy. <= 2.5000
|   |   |   |   |   |   |   |--- This art piece makes me feel sombre. <= 3.5000
|   |   |   |   |   |   |   |   |--- class: 1.0
|   |   |   |   |   |   |   |--- This art piece makes me feel sombre. >  3.5000
|   |   |   |   |   |   |   |   |--- class: 2.0
|   |   |   |   |   |   |--- This art piece makes me feel uneasy. >  2.5000
|   |   |   |   |   |   |   |--- class: 2.0
|   |   |   |   |   |--- text::too much >  0.5000
|   |   |   |   |   |   |--- class: 1.0
|   |   |   |   |--- text::everything >  0.5000
|   |   |   |   |   |--- class: 2.0
|   |   |   |--- If you could purchase this painting, which room would you put that painting in?=Living room >  0.5000
|   |   |   |   |--- This art piece makes me feel content. <= 3.5000
|   |   |   |   |   |--- text::time feel <= 0.5000
|   |   |   |   |   |   |--- text::painting <= 0.5000
|   |   |   |   |   |   |   |--- class: 2.0
|   |   |   |   |   |   |--- text::painting >  0.5000
|   |   |   |   |   |   |   |--- class: 2.0
|   |   |   |   |   |--- text::time feel >  0.5000
|   |   |   |   |   |   |--- class: 1.0
|   |   |   |   |--- This art piece makes me feel content. >  3.5000
|   |   |   |   |   |--- class: 1.0
|   |--- If you could view this art in person, who would you want to view it with?=Family members >  0.5000
|   |   |--- text::hopeless <= 0.5000
|   |   |   |--- text::warm <= 0.5000
|   |   |   |   |--- text::could be <= 0.5000
|   |   |   |   |   |--- text::waiting <= 0.5000
|   |   |   |   |   |   |--- text::sad <= 1.5000
|   |   |   |   |   |   |   |--- text::eery <= 0.5000
|   |   |   |   |   |   |   |   |--- text::sad or <= 0.5000
|   |   |   |   |   |   |   |   |   |--- If you could view this art in person, who would you want to view it with?=Coworkers/Classmates <= 0.5000
|   |   |   |   |   |   |   |   |   |   |--- text::weather <= 0.5000
|   |   |   |   |   |   |   |   |   |   |   |--- truncated branch of depth 8
|   |   |   |   |   |   |   |   |   |   |--- text::weather >  0.5000
|   |   |   |   |   |   |   |   |   |   |   |--- class: 1.0
|   |   |   |   |   |   |   |   |   |--- If you could view this art in person, who would you want to view it with?=Coworkers/Classmates >  0.5000
|   |   |   |   |   |   |   |   |   |   |--- text::gloomy <= 0.5000
|   |   |   |   |   |   |   |   |   |   |   |--- class: 1.0
|   |   |   |   |   |   |   |   |   |   |--- text::gloomy >  0.5000
|   |   |   |   |   |   |   |   |   |   |   |--- class: 1.0
|   |   |   |   |   |   |   |   |--- text::sad or >  0.5000
|   |   |   |   |   |   |   |   |   |--- class: 1.0
|   |   |   |   |   |   |   |--- text::eery >  0.5000
|   |   |   |   |   |   |   |   |--- class: 1.0
|   |   |   |   |   |   |--- text::sad >  1.5000
|   |   |   |   |   |   |   |--- class: 1.0
|   |   |   |   |   |--- text::waiting >  0.5000
|   |   |   |   |   |   |--- class: 2.0
|   |   |   |   |--- text::could be >  0.5000
|   |   |   |   |   |--- text::quiet <= 0.5000
|   |   |   |   |   |   |--- class: 2.0
|   |   |   |   |   |--- text::quiet >  0.5000
|   |   |   |   |   |   |--- class: 2.0
|   |   |   |--- text::warm >  0.5000
|   |   |   |   |--- text::but the <= 0.5000
|   |   |   |   |   |--- class: 1.0
|   |   |   |   |--- text::but the >  0.5000
|   |   |   |   |   |--- class: 0.0
|   |   |--- text::hopeless >  0.5000
|   |   |   |--- class: 2.0
