|--- This art piece makes me feel calm. <= 3.5000
|   |--- text::score with <= 0.5000
|   |   |--- text::drawn in <= 0.5000
|   |   |   |--- text::to <= 0.5000
|   |   |   |   |--- text::there is <= 1.5000
|   |   |   |   |   |--- text::happy piano <= 0.5000
|   |   |   |   |   |   |--- text::but <= 0.5000
|   |   |   |   |   |   |   |--- This art piece makes me feel calm. <= 0.0000
|   |   |   |   |   |   |   |   |--- This art piece makes me feel sombre._missing <= 0.5000
|   |   |   |   |   |   |   |   |   |--- class: 1.0
|   |   |   |   |   |   |   |   |--- This art piece makes me feel sombre._missing >  0.5000
|   |   |   |   |   |   |   |   |   |--- text::ice cream <= 0.5000
|   |   |   |   |   |   |   |   |   |   |--- intensity <= 0.5000
|   |   |   |   |   |   |   |   |   |   |   |--- truncated branch of depth 2
|   |   |   |   |   |   |   |   |   |   |--- intensity >  0.5000
|   |   |   |   |   |   |   |   |   |   |   |--- truncated branch of depth 2
|   |   |   |   |   |   |   |   |   |--- text::ice cream >  0.5000
|   |   |   |   |   |   |   |   |   |   |--- class: 2.0
|   |   |   |   |   |   |   |--- This art piece makes me feel calm. >  0.0000
|   |   |   |   |   |   |   |   |--- text::look at <= 0.5000
|   |   |   |   |   |   |   |   |   |--- text::poutine <= 0.5000
|   |   |   |   |   |   |   |   |   |   |--- log_price <= 4.1652
|   |   |   |   |   |   |   |   |   |   |   |--- truncated branch of depth 27
|   |   |   |   |   |   |   |   |   |   |--- log_price >  4.1652
|   |   |   |   |   |   |   |   |   |   |   |--- truncated branch of depth 21
|   |   |   |   |   |   |   |   |   |--- text::poutine >  0.5000
|   |   |   |   |   |   |   |   |   |   |--- class: 1.0
|   |   |   |   |   |   |   |   |--- text::look at >  0.5000
|   |   |   |   |   |   |   |   |   |--- class: 0.0
|   |   |   |   |   |   |--- text::but >  0.5000
|   |   |   |   |   |   |   |--- text::clocks melting <= 0.5000
|   |   |   |   |   |   |   |   |--- text::even <= 0.5000
|   |   |   |   |   |   |   |   |   |--- text::painting makes <= 0.5000
|   |   |   |   |   |   |   |   |   |   |--- text::immediately <= 0.5000
|   |   |   |   |   |   |   |   |   |   |   |--- truncated branch of depth 16
|   |   |   |   |   |   |   |   |   |   |--- text::immediately >  0.5000
|   |   |   |   |   |   |   |   |   |   |   |--- class: 2.0
|   |   |   |   |   |   |   |   |   |--- text::painting makes >  0.5000
|   |   |   |   |   |   |   |   |   |   |--- text::overwhelming <= 0.5000
|   |   |   |   |   |   |   |   |   |   |   |--- class: 2.0
|   |   |   |   |   |   |   |   |   |   |--- text::overwhelming >  0.5000
|   |   |   |   |   |   |   |   |   |   |   |--- class: 0.0
|   |   |   |   |   |   |   |   |--- text::even >  0.5000
|   |   |   |   |   |   |   |   |   |--- class: 2.0
|   |   |   |   |   |   |   |--- text::clocks melting >  0.5000
|   |   |   |   |   |   |   |   |--- class: 2.0
|   |   |   |   |   |--- text::happy piano >  0.5000
|   |   |   |   |   |   |--- text::feel happy <= 0.5000
|   |   |   |   |   |   |   |--- class: 1.0
|   |   |   |   |   |   |--- text::feel happy >  0.5000
|   |   |   |   |   |   |   |--- class: 0.0
|   |   |   |   |--- text::there is >  1.5000
|   |   |   |   |   |--- class: 1.0
|   |   |   |--- text::to >  0.5000
|   |   |   |   |--- text::houses <= 0.5000
|   |   |   |   |   |--- intensity_x_objects <= 9.0000
|   |   |   |   |   |   |--- text::through <= 0.5000
|   |   |   |   |   |   |   |--- text::repetitive <= 0.5000
|   |   |   |   |   |   |   |   |--- class: 0.0
|   |   |   |   |   |   |   |--- text::repetitive >  0.5000
|   |   |   |   |   |   |   |   |--- class: 1.0
|   |   |   |   |   |   |--- text::through >  0.5000
|   |   |   |   |   |   |   |--- class: 2.0
|   |   |   |   |   |--- intensity_x_objects >  9.0000
|   |   |   |   |   |   |--- text::it in <= 0.5000
|   |   |   |   |   |   |   |--- text::sharp high <= 0.5000
|   |   |   |   |   |   |   |   |--- text::that will <= 0.5000
|   |   |   |   |   |   |   |   |   |--- text::an intense <= 0.5000
|   |   |   |   |   |   |   |   |   |   |--- text::music <= 1.5000
|   |   |   |   |   |   |   |   |   |   |   |--- truncated branch of depth 7
|   |   |   |   |   |   |   |   |   |   |--- text::music >  1.5000
|   |   |   |   |   |   |   |   |   |   |   |--- class: 1.0
|   |   |   |   |   |   |   |   |   |--- text::an intense >  0.5000
|   |   |   |   |   |   |   |   |   |   |--- class: 1.0
|   |   |   |   |   |   |   |   |--- text::that will >  0.5000
|   |   |   |   |   |   |   |   |   |--- text::dread <= 0.5000
|   |   |   |   |   |   |   |   |   |   |--- class: 1.0
|   |   |   |   |   |   |   |   |   |--- text::dread >  0.5000
|   |   |   |   |   |   |   |   |   |   |--- class: 2.0
|   |   |   |   |   |   |   |--- text::sharp high >  0.5000
|   |   |   |   |   |   |   |   |--- class: 1.0
|   |   |   |   |   |   |--- text::it in >  0.5000
|   |   |   |   |   |   |   |--- class: 0.0
|   |   |   |   |--- text::houses >  0.5000
|   |   |   |   |   |--- text::of <= 1.5000
|   |   |   |   |   |   |--- class: 1.0
|   |   |   |   |   |--- text::of >  1.5000
|   |   |   |   |   |   |--- class: 1.0
|   |   |--- text::drawn in >  0.5000
|   |   |   |--- class: 1.0
|   |--- text::score with >  0.5000
|   |   |--- class: 0.0
|--- This art piece makes me feel calm. >  3.5000
|   |--- text::birds chirping <= 0.5000
|   |   |--- text::tea <= 0.5000
|   |   |   |--- text::dream <= 0.5000
|   |   |   |   |--- text::is <= 0.5000
|   |   |   |   |   |--- text::ease salad <= 0.5000
|   |   |   |   |   |   |--- text::shapes <= 0.5000
|   |   |   |   |   |   |   |--- text::one instrument <= 0.5000
|   |   |   |   |   |   |   |   |--- If you could purchase this painting, which room would you put that painting in?__count <= 2.5000
|   |   |   |   |   |   |   |   |   |--- text::the melting <= 0.5000
|   |   |   |   |   |   |   |   |   |   |--- text::intense <= 0.5000
|   |   |   |   |   |   |   |   |   |   |   |--- truncated branch of depth 47
|   |   |   |   |   |   |   |   |   |   |--- text::intense >  0.5000
|   |   |   |   |   |   |   |   |   |   |   |--- truncated branch of depth 3
|   |   |   |   |   |   |   |   |   |--- text::the melting >  0.5000
|   |   |   |   |   |   |   |   |   |   |--- class: 2.0
|   |   |   |   |   |   |   |   |--- If you could purchase this painting, which room would you put that painting in?__count >  2.5000
|   |   |   |   |   |   |   |   |   |--- text::soup <= 0.5000
|   |   |   |   |   |   |   |   |   |   |--- text::peaceful blueberry <= 0.5000
|   |   |   |   |   |   |   |   |   |   |   |--- truncated branch of depth 40
|   |   |   |   |   |   |   |   |   |   |--- text::peaceful blueberry >  0.5000
|   |   |   |   |   |   |   |   |   |   |   |--- class: 1.0
|   |   |   |   |   |   |   |   |   |--- text::soup >  0.5000
|   |   |   |   |   |   |   |   |   |   |--- class: 1.0
|   |   |   |   |   |   |   |--- text::one instrument >  0.5000
|   |   |   |   |   |   |   |   |--- class: 2.0
|   |   |   |   |   |   |--- text::shapes >  0.5000
|   |   |   |   |   |   |   |--- text::should be <= 0.5000
|   |   |   |   |   |   |   |   |--- class: 2.0
|   |   |   |   |   |   |   |--- text::should be >  0.5000
|   |   |   |   |   |   |   |   |--- class: 2.0
|   |   |   |   |   |--- text::ease salad >  0.5000
|   |   |   |   |   |   |--- class: 0.0
|   |   |   |   |--- text::is >  0.5000
|   |   |   |   |   |--- text::salad <= 0.5000
|   |   |   |   |   |   |--- text::deep and <= 0.5000
|   |   |   |   |   |   |   |--- text::sky <= 0.5000
|   |   |   |   |   |   |   |   |--- text::soup <= 0.5000
|   |   |   |   |   |   |   |   |   |--- text::good <= 0.5000
|   |   |   |   |   |   |   |   |   |   |--- text::this <= 0.5000
|   |   |   |   |   |   |   |   |   |   |   |--- truncated branch of depth 15
|   |   |   |   |   |   |   |   |   |   |--- text::this >  0.5000
|   |   |   |   |   |   |   |   |   |   |   |--- truncated branch of depth 12
|   |   |   |   |   |   |   |   |   |--- text::good >  0.5000
|   |   |   |   |   |   |   |   |   |   |--- text::notes <= 0.5000
|   |   |   |   |   |   |   |   |   |   |   |--- truncated branch of depth 4
|   |   |   |   |   |   |   |   |   |   |--- text::notes >  0.5000
|   |   |   |   |   |   |   |   |   |   |   |--- class: 0.0
|   |   |   |   |   |   |   |   |--- text::soup >  0.5000
|   |   |   |   |   |   |   |   |   |--- This art piece makes me feel calm. <= 4.5000
|   |   |   |   |   |   |   |   |   |   |--- class: 1.0
|   |   |   |   |   |   |   |   |   |--- This art piece makes me feel calm. >  4.5000
|   |   |   |   |   |   |   |   |   |   |--- class: 1.0
|   |   |   |   |   |   |   |--- text::sky >  0.5000
|   |   |   |   |   |   |   |   |--- text::the swirls <= 0.5000
|   |   |   |   |   |   |   |   |   |--- class: 1.0
|   |   |   |   |   |   |   |   |--- text::the swirls >  0.5000
|   |   |   |   |   |   |   |   |   |--- class: 1.0
|   |   |   |   |   |   |--- text::deep and >  0.5000
|   |   |   |   |   |   |   |--- class: 0.0
|   |   |   |   |   |--- text::salad >  0.5000
|   |   |   |   |   |   |--- If you could view this art in person, who would you want to view it with?__count <= 2.5000
|   |   |   |   |   |   |   |--- text::it peaceful <= 0.5000
|   |   |   |   |   |   |   |   |--- text::painting is <= 0.5000
|   |   |   |   |   |   |   |   |   |--- text::in spring <= 0.5000
|   |   |   |   |   |   |   |   |   |   |--- text::me feel <= 0.5000
|   |   |   |   |   |   |   |   |   |   |   |--- truncated branch of depth 4
|   |   |   |   |   |   |   |   |   |   |--- text::me feel >  0.5000
|   |   |   |   |   |   |   |   |   |   |   |--- class: 0.0
|   |   |   |   |   |   |   |   |   |--- text::in spring >  0.5000
|   |   |   |   |   |   |   |   |   |   |--- class: 0.0
|   |   |   |   |   |   |   |   |--- text::painting is >  0.5000
|   |   |   |   |   |   |   |   |   |--- class: 0.0
|   |   |   |   |   |   |   |--- text::it peaceful >  0.5000
|   |   |   |   |   |   |   |   |--- class: 0.0
|   |   |   |   |   |   |--- If you could view this art in person, who would you want to view it with?__count >  2.5000
|   |   |   |   |   |   |   |--- class: 2.0
|   |   |   |--- text::dream >  0.5000
|   |   |   |   |--- What season does this art piece remind you of?=Summer <= 0.5000
|   |   |   |   |   |--- class: 1.0
|   |   |   |   |--- What season does this art piece remind you of?=Summer >  0.5000
|   |   |   |   |   |--- text::calm the <= 0.5000
|   |   |   |   |   |   |--- text::me <= 0.5000
|   |   |   |   |   |   |   |--- text::some <= 0.5000
|   |   |   |   |   |   |   |   |--- class: 0.0
|   |   |   |   |   |   |   |--- text::some >  0.5000
|   |   |   |   |   |   |   |   |--- text::unreal <= 0.5000
|   |   |   |   |   |   |   |   |   |--- class: 1.0
|   |   |   |   |   |   |   |   |--- text::unreal >  0.5000
|   |   |   |   |   |   |   |   |   |--- class: 2.0
|   |   |   |   |   |   |--- text::me >  0.5000
|   |   |   |   |   |   |   |--- text::classical music <= 0.5000
|   |   |   |   |   |   |   |   |--- class: 1.0
|   |   |   |   |   |   |   |--- text::classical music >  0.5000
|   |   |   |   |   |   |   |   |--- class: 2.0
|   |   |   |   |   |--- text::calm the >  0.5000
|   |   |   |   |   |   |--- class: 1.0
|   |   |--- text::tea >  0.5000
|   |   |   |--- class: 0.0
|   |--- text::birds chirping >  0.5000
|   |   |--- class: 0.0
