|--- text::goes <= 0.5000
|   |--- text::with light <= 0.5000
|   |   |--- text::magical <= 0.5000
|   |   |   |--- text::has <= 0.5000
|   |   |   |   |--- text::slow <= 0.5000
|   |   |   |   |   |--- text::is passing <= 0.5000
|   |   |   |   |   |   |--- text::sweet and <= 0.5000
|   |   |   |   |   |   |   |--- text::the night <= 0.5000
|   |   |   |   |   |   |   |   |--- text::ticking <= 0.5000
|   |   |   |   |   |   |   |   |   |--- text::night <= 0.5000
|   |   |   |   |   |   |   |   |   |   |--- text::happiness <= 0.5000
|   |   |   |   |   |   |   |   |   |   |   |--- truncated branch of depth 41
|   |   |   |   |   |   |   |   |   |   |--- text::happiness >  0.5000
|   |   |   |   |   |   |   |   |   |   |   |--- class: 0.0
|   |   |   |   |   |   |   |   |   |--- text::night >  0.5000
|   |   |   |   |   |   |   |   |   |   |--- If you could purchase this painting, which room would you put that painting in?=Living room <= 0.5000
|   |   |   |   |   |   |   |   |   |   |   |--- class: 1.0
|   |   |   |   |   |   |   |   |   |   |--- If you could purchase this painting, which room would you put that painting in?=Living room >  0.5000
|   |   |   |   |   |   |   |   |   |   |   |--- truncated branch of depth 3
|   |   |   |   |   |   |   |   |--- text::ticking >  0.5000
|   |   |   |   |   |   |   |   |   |--- class: 2.0
|   |   |   |   |   |   |   |--- text::the night >  0.5000
|   |   |   |   |   |   |   |   |--- class: 1.0
|   |   |   |   |   |   |--- text::sweet and >  0.5000
|   |   |   |   |   |   |   |--- class: 0.0
|   |   |   |   |   |--- text::is passing >  0.5000
|   |   |   |   |   |   |--- class: 2.0
|   |   |   |   |--- text::slow >  0.5000
|   |   |   |   |   |--- If you could view this art in person, who would you want to view it with?=Family members <= 0.5000
|   |   |   |   |   |   |--- text::piano slow <= 0.5000
|   |   |   |   |   |   |   |--- text::relaxing <= 0.5000
|   |   |   |   |   |   |   |   |--- text::smoothie <= 0.5000
|   |   |   |   |   |   |   |   |   |--- text::and flowing <= 0.5000
|   |   |   |   |   |   |   |   |   |   |--- text::pizzicato <= 0.5000
|   |   |   |   |   |   |   |   |   |   |   |--- truncated branch of depth 16
|   |   |   |   |   |   |   |   |   |   |--- text::pizzicato >  0.5000
|   |   |   |   |   |   |   |   |   |   |   |--- class: 1.0
|   |   |   |   |   |   |   |   |   |--- text::and flowing >  0.5000
|   |   |   |   |   |   |   |   |   |   |--- class: 1.0
|   |   |   |   |   |   |   |   |--- text::smoothie >  0.5000
|   |   |   |   |   |   |   |   |   |--- class: 1.0
|   |   |   |   |   |   |   |--- text::relaxing >  0.5000
|   |   |   |   |   |   |   |   |--- class: 0.0
|   |   |   |   |   |   |--- text::piano slow >  0.5000
|   |   |   |   |   |   |   |--- text::now <= 0.5000
|   |   |   |   |   |   |   |   |--- class: 1.0
|   |   |   |   |   |   |   |--- text::now >  0.5000
|   |   |   |   |   |   |   |   |--- class: 0.0
|   |   |   |   |   |--- If you could view this art in person, who would you want to view it with?=Family members >  0.5000
|   |   |   |   |   |   |--- If you could view this art in person, who would you want to view it with?__count <= 2.5000
|   |   |   |   |   |   |   |--- text::nothing <= 0.5000
|   |   |   |   |   |   |   |   |--- text::maybe <= 0.5000
|   |   |   |   |   |   |   |   |   |--- log_price <= 3.4858
|   |   |   |   |   |   |   |   |   |   |--- text::me feel <= 0.5000
|   |   |   |   |   |   |   |   |   |   |   |--- class: 0.0
|   |   |   |   |   |   |   |   |   |   |--- text::me feel >  0.5000
|   |   |   |   |   |   |   |   |   |   |   |--- class: 2.0
|   |   |   |   |   |   |   |   |   |--- log_price >  3.4858
|   |   |   |   |   |   |   |   |   |   |--- intensity_x_objects <= 8.0000
|   |   |   |   |   |   |   |   |   |   |   |--- class: 0.0
|   |   |   |   |   |   |   |   |   |   |--- intensity_x_objects >  8.0000
|   |   |   |   |   |   |   |   |   |   |   |--- truncated branch of depth 10
|   |   |   |   |   |   |   |   |--- text::maybe >  0.5000
|   |   |   |   |   |   |   |   |   |--- class: 2.0
|   |   |   |   |   |   |   |--- text::nothing >  0.5000
|   |   |   |   |   |   |   |   |--- class: 0.0
|   |   |   |   |   |   |--- If you could view this art in person, who would you want to view it with?__count >  2.5000
|   |   |   |   |   |   |   |--- text::my head <= 0.5000
|   |   |   |   |   |   |   |   |--- text::and there <= 0.5000
|   |   |   |   |   |   |   |   |   |--- If you could purchase this painting, which room would you put that painting in?=Dining room <= 0.5000
|   |   |   |   |   |   |   |   |   |   |--- text::with <= 0.5000
|   |   |   |   |   |   |   |   |   |   |   |--- truncated branch of depth 8
|   |   |   |   |   |   |   |   |   |   |--- text::with >  0.5000
|   |   |   |   |   |   |   |   |   |   |   |--- truncated branch of depth 8
|   |   |   |   |   |   |   |   |   |--- If you could purchase this painting, which room would you put that painting in?=Dining room >  0.5000
|   |   |   |   |   |   |   |   |   |   |--- text::it <= 2.5000
|   |   |   |   |   |   |   |   |   |   |   |--- truncated branch of depth 12
|   |   |   |   |   |   |   |   |   |   |--- text::it >  2.5000
|   |   |   |   |   |   |   |   |   |   |   |--- class: 0.0
|   |   |   |   |   |   |   |   |--- text::and there >  0.5000
|   |   |   |   |   |   |   |   |   |--- class: 2.0
|   |   |   |   |   |   |   |--- text::my head >  0.5000
|   |   |   |   |   |   |   |   |--- class: 0.0
|   |   |   |--- text::has >  0.5000
|   |   |   |   |--- What season does this art piece remind you of?__count <= 1.5000
|   |   |   |   |   |--- text::salad <= 0.5000
|   |   |   |   |   |   |--- text::and <= 7.5000
|   |   |   |   |   |   |   |--- This art piece makes me feel content. <= 4.5000
|   |   |   |   |   |   |   |   |--- text::everything <= 0.5000
|   |   |   |   |   |   |   |   |   |--- text::day <= 0.5000
|   |   |   |   |   |   |   |   |   |   |--- text::in <= 0.5000
|   |   |   |   |   |   |   |   |   |   |   |--- class: 2.0
|   |   |   |   |   |   |   |   |   |   |--- text::in >  0.5000
|   |   |   |   |   |   |   |   |   |   |   |--- truncated branch of depth 3
|   |   |   |   |   |   |   |   |   |--- text::day >  0.5000
|   |   |   |   |   |   |   |   |   |   |--- text::relaxed <= 0.5000
|   |   |   |   |   |   |   |   |   |   |   |--- class: 2.0
|   |   |   |   |   |   |   |   |   |   |--- text::relaxed >  0.5000
|   |   |   |   |   |   |   |   |   |   |   |--- class: 1.0
|   |   |   |   |   |   |   |   |--- text::everything >  0.5000
|   |   |   |   |   |   |   |   |   |--- text::though time <= 0.5000
|   |   |   |   |   |   |   |   |   |   |--- class: 2.0
|   |   |   |   |   |   |   |   |   |--- text::though time >  0.5000
|   |   |   |   |   |   |   |   |   |   |--- class: 1.0
|   |   |   |   |   |   |   |--- This art piece makes me feel content. >  4.5000
|   |   |   |   |   |   |   |   |--- class: 0.0
|   |   |   |   |   |   |--- text::and >  7.5000
|   |   |   |   |   |   |   |--- text::quiet <= 1.5000
|   |   |   |   |   |   |   |   |--- text::to come <= 0.5000
|   |   |   |   |   |   |   |   |   |--- class: 1.0
|   |   |   |   |   |   |   |   |--- text::to come >  0.5000
|   |   |   |   |   |   |   |   |   |--- class: 1.0
|   |   |   |   |   |   |   |--- text::quiet >  1.5000
|   |   |   |   |   |   |   |   |--- class: 2.0
|   |   |   |   |   |--- text::salad >  0.5000
|   |   |   |   |   |   |--- class: 0.0
|   |   |   |   |--- What season does this art piece remind you of?__count >  1.5000
|   |   |   |   |   |--- If you could purchase this painting, which room would you put that painting in?=Bedroom <= 0.5000
|   |   |   |   |   |   |--- text::lively <= 0.5000
|   |   |   |   |   |   |   |--- text::reality <= 0.5000
|   |   |   |   |   |   |   |   |--- class: 2.0
|   |   |   |   |   |   |   |--- text::reality >  0.5000
|   |   |   |   |   |   |   |   |--- class: 2.0
|   |   |   |   |   |   |--- text::lively >  0.5000
|   |   |   |   |   |   |   |--- class: 1.0
|   |   |   |   |   |--- If you could purchase this painting, which room would you put that painting in?=Bedroom >  0.5000
|   |   |   |   |   |   |--- class: 1.0
|   |   |--- text::magical >  0.5000
|   |   |   |--- text::happy <= 0.5000
|   |   |   |   |--- text::at <= 0.5000
|   |   |   |   |   |--- text::friends <= 0.5000
|   |   |   |   |   |   |--- intensity_x_colours <= 15.5000
|   |   |   |   |   |   |   |--- class: 1.0
|   |   |   |   |   |   |--- intensity_x_colours >  15.5000
|   |   |   |   |   |   |   |--- class: 1.0
|   |   |   |   |   |--- text::friends >  0.5000
|   |   |   |   |   |   |--- class: 0.0
|   |   |   |   |--- text::at >  0.5000
|   |   |   |   |   |--- class: 1.0
|   |   |   |--- text::happy >  0.5000
|   |   |   |   |--- class: 0.0
|   |--- text::with light >  0.5000
|   |   |--- text::peace <= 0.5000
|   |   |   |--- text::gently <= 0.5000
|   |   |   |   |--- This art piece makes me feel content. <= 3.0000
|   |   |   |   |   |--- class: 1.0
|   |   |   |   |--- This art piece makes me feel content. >  3.0000
|   |   |   |   |   |--- class: 0.0
|   |   |   |--- text::gently >  0.5000
|   |   |   |   |--- class: 0.0
|   |   |--- text::peace >  0.5000
|   |   |   |--- class: 0.0
|--- text::goes >  0.5000
|   |--- text::if am <= 0.5000
|   |   |--- text::it feels <= 0.5000
|   |   |   |--- text::life <= 0.5000
|   |   |   |   |--- class: 2.0
|   |   |   |--- text::life >  0.5000
|   |   |   |   |--- If you could view this art in person, who would you want to view it with?__count <= 3.0000
|   |   |   |   |   |--- class: 2.0
|   |   |   |   |--- If you could view this art in person, who would you want to view it with?__count >  3.0000
|   |   |   |   |   |--- class: 0.0
|   |   |--- text::it feels >  0.5000
|   |   |   |--- class: 2.0
|   |--- text::if am >  0.5000
|   |   |--- class: 1.0
