|--- text::matcha <= 0.5000
|   |--- text::and light <= 0.5000
|   |   |--- If you could view this art in person, who would you want to view it with?__count <= 2.5000
|   |   |   |--- text::like time <= 0.5000
|   |   |   |   |--- text::and it <= 0.5000
|   |   |   |   |   |--- text::and anxious <= 0.5000
|   |   |   |   |   |   |--- text::birds <= 0.5000
|   |   |   |   |   |   |   |--- What season does this art piece remind you of?=Spring <= 0.5000
|   |   |   |   |   |   |   |   |--- text::were <= 0.5000
|   |   |   |   |   |   |   |   |   |--- If you could view this art in person, who would you want to view it with?__missing <= 0.5000
|   |   |   |   |   |   |   |   |   |   |--- intensity_x_colours <= 19.0000
|   |   |   |   |   |   |   |   |   |   |   |--- truncated branch of depth 34
|   |   |   |   |   |   |   |   |   |   |--- intensity_x_colours >  19.0000
|   |   |   |   |   |   |   |   |   |   |   |--- truncated branch of depth 37
|   |   |   |   |   |   |   |   |   |--- If you could view this art in person, who would you want to view it with?__missing >  0.5000
|   |   |   |   |   |   |   |   |   |   |--- text::reminds <= 0.5000
|   |   |   |   |   |   |   |   |   |   |   |--- truncated branch of depth 11
|   |   |   |   |   |   |   |   |   |   |--- text::reminds >  0.5000
|   |   |   |   |   |   |   |   |   |   |   |--- class: 0.0
|   |   |   |   |   |   |   |   |--- text::were >  0.5000
|   |   |   |   |   |   |   |   |   |--- class: 1.0
|   |   |   |   |   |   |   |--- What season does this art piece remind you of?=Spring >  0.5000
|   |   |   |   |   |   |   |   |--- colours_x_objects <= 5.0000
|   |   |   |   |   |   |   |   |   |--- text::you would <= 0.5000
|   |   |   |   |   |   |   |   |   |   |--- text::be calm <= 0.5000
|   |   |   |   |   |   |   |   |   |   |   |--- truncated branch of depth 15
|   |   |   |   |   |   |   |   |   |   |--- text::be calm >  0.5000
|   |   |   |   |   |   |   |   |   |   |   |--- class: 0.0
|   |   |   |   |   |   |   |   |   |--- text::you would >  0.5000
|   |   |   |   |   |   |   |   |   |   |--- class: 1.0
|   |   |   |   |   |   |   |   |--- colours_x_objects >  5.0000
|   |   |   |   |   |   |   |   |   |--- text::that go <= 0.5000
|   |   |   |   |   |   |   |   |   |   |--- This art piece makes me feel uneasy. <= 1.5000
|   |   |   |   |   |   |   |   |   |   |   |--- truncated branch of depth 13
|   |   |   |   |   |   |   |   |   |   |--- This art piece makes me feel uneasy. >  1.5000
|   |   |   |   |   |   |   |   |   |   |   |--- truncated branch of depth 19
|   |   |   |   |   |   |   |   |   |--- text::that go >  0.5000
|   |   |   |   |   |   |   |   |   |   |--- class: 1.0
|   |   |   |   |   |   |--- text::birds >  0.5000
|   |   |   |   |   |   |   |--- text::air <= 0.5000
|   |   |   |   |   |   |   |   |--- text::me feel <= 0.5000
|   |   |   |   |   |   |   |   |   |--- text::do <= 0.5000
|   |   |   |   |   |   |   |   |   |   |--- text::and wonder <= 0.5000
|   |   |   |   |   |   |   |   |   |   |   |--- class: 0.0
|   |   |   |   |   |   |   |   |   |   |--- text::and wonder >  0.5000
|   |   |   |   |   |   |   |   |   |   |   |--- class: 1.0
|   |   |   |   |   |   |   |   |   |--- text::do >  0.5000
|   |   |   |   |   |   |   |   |   |   |--- class: 0.0
|   |   |   |   |   |   |   |   |--- text::me feel >  0.5000
|   |   |   |   |   |   |   |   |   |--- text::painting makes <= 0.5000
|   |   |   |   |   |   |   |   |   |   |--- text::lucky <= 0.5000
|   |   |   |   |   |   |   |   |   |   |   |--- class: 2.0
|   |   |   |   |   |   |   |   |   |   |--- text::lucky >  0.5000
|   |   |   |   |   |   |   |   |   |   |   |--- class: 0.0
|   |   |   |   |   |   |   |   |   |--- text::painting makes >  0.5000
|   |   |   |   |   |   |   |   |   |   |--- class: 0.0
|   |   |   |   |   |   |   |--- text::air >  0.5000
|   |   |   |   |   |   |   |   |--- class: 0.0
|   |   |   |   |   |--- text::and anxious >  0.5000
|   |   |   |   |   |   |--- text::piece <= 0.5000
|   |   |   |   |   |   |   |--- class: 2.0
|   |   |   |   |   |   |--- text::piece >  0.5000
|   |   |   |   |   |   |   |--- class: 2.0
|   |   |   |   |--- text::and it >  0.5000
|   |   |   |   |   |--- text::music <= 0.5000
|   |   |   |   |   |   |--- What season does this art piece remind you of?=Winter <= 0.5000
|   |   |   |   |   |   |   |--- text::sandwich it <= 0.5000
|   |   |   |   |   |   |   |   |--- text::larger <= 0.5000
|   |   |   |   |   |   |   |   |   |--- class: 2.0
|   |   |   |   |   |   |   |   |--- text::larger >  0.5000
|   |   |   |   |   |   |   |   |   |--- class: 1.0
|   |   |   |   |   |   |   |--- text::sandwich it >  0.5000
|   |   |   |   |   |   |   |   |--- class: 2.0
|   |   |   |   |   |   |--- What season does this art piece remind you of?=Winter >  0.5000
|   |   |   |   |   |   |   |--- text::really <= 0.5000
|   |   |   |   |   |   |   |   |--- class: 2.0
|   |   |   |   |   |   |   |--- text::really >  0.5000
|   |   |   |   |   |   |   |   |--- class: 1.0
|   |   |   |   |   |--- text::music >  0.5000
|   |   |   |   |   |   |--- class: 2.0
|   |   |   |--- text::like time >  0.5000
|   |   |   |   |--- class: 2.0
|   |   |--- If you could view this art in person, who would you want to view it with?__count >  2.5000
|   |   |   |--- price <= 110.0000
|   |   |   |   |--- text::cool <= 0.5000
|   |   |   |   |   |--- text::the melting <= 0.5000
|   |   |   |   |   |   |--- What season does this art piece remind you of?__count <= 2.5000
|   |   |   |   |   |   |   |--- text::clock <= 0.5000
|   |   |   |   |   |   |   |   |--- text::blueberry <= 0.5000
|   |   |   |   |   |   |   |   |   |--- text::passing by <= 0.5000
|   |   |   |   |   |   |   |   |   |   |--- What season does this art piece remind you of?=Spring <= 0.5000
|   |   |   |   |   |   |   |   |   |   |   |--- truncated branch of depth 17
|   |   |   |   |   |   |   |   |   |   |--- What season does this art piece remind you of?=Spring >  0.5000
|   |   |   |   |   |   |   |   |   |   |   |--- truncated branch of depth 19
|   |   |   |   |   |   |   |   |   |--- text::passing by >  0.5000
|   |   |   |   |   |   |   |   |   |   |--- class: 2.0
|   |   |   |   |   |   |   |   |--- text::blueberry >  0.5000
|   |   |   |   |   |   |   |   |   |--- text::feels <= 0.5000
|   |   |   |   |   |   |   |   |   |   |--- If you could purchase this painting, which room would you put that painting in?=Bathroom <= 0.5000
|   |   |   |   |   |   |   |   |   |   |   |--- truncated branch of depth 2
|   |   |   |   |   |   |   |   |   |   |--- If you could purchase this painting, which room would you put that painting in?=Bathroom >  0.5000
|   |   |   |   |   |   |   |   |   |   |   |--- class: 1.0
|   |   |   |   |   |   |   |   |   |--- text::feels >  0.5000
|   |   |   |   |   |   |   |   |   |   |--- class: 1.0
|   |   |   |   |   |   |   |--- text::clock >  0.5000
|   |   |   |   |   |   |   |   |--- class: 2.0
|   |   |   |   |   |   |--- What season does this art piece remind you of?__count >  2.5000
|   |   |   |   |   |   |   |--- text::calm and <= 0.5000
|   |   |   |   |   |   |   |   |--- class: 1.0
|   |   |   |   |   |   |   |--- text::calm and >  0.5000
|   |   |   |   |   |   |   |   |--- class: 1.0
|   |   |   |   |   |--- text::the melting >  0.5000
|   |   |   |   |   |   |--- text::if <= 0.5000
|   |   |   |   |   |   |   |--- class: 2.0
|   |   |   |   |   |   |--- text::if >  0.5000
|   |   |   |   |   |   |   |--- class: 2.0
|   |   |   |   |--- text::cool >  0.5000
|   |   |   |   |   |--- text::seem <= 0.5000
|   |   |   |   |   |   |--- class: 1.0
|   |   |   |   |   |--- text::seem >  0.5000
|   |   |   |   |   |   |--- class: 1.0
|   |   |   |--- price >  110.0000
|   |   |   |   |--- text::sun <= 0.5000
|   |   |   |   |   |--- What season does this art piece remind you of?=Winter <= 0.5000
|   |   |   |   |   |   |--- text::around <= 0.5000
|   |   |   |   |   |   |   |--- text::feels familiar <= 0.5000
|   |   |   |   |   |   |   |   |--- text::ending <= 0.5000
|   |   |   |   |   |   |   |   |   |--- text::intense <= 0.5000
|   |   |   |   |   |   |   |   |   |   |--- text::night <= 0.5000
|   |   |   |   |   |   |   |   |   |   |   |--- truncated branch of depth 24
|   |   |   |   |   |   |   |   |   |   |--- text::night >  0.5000
|   |   |   |   |   |   |   |   |   |   |   |--- truncated branch of depth 2
|   |   |   |   |   |   |   |   |   |--- text::intense >  0.5000
|   |   |   |   |   |   |   |   |   |   |--- text::intense melody <= 0.5000
|   |   |   |   |   |   |   |   |   |   |   |--- class: 1.0
|   |   |   |   |   |   |   |   |   |   |--- text::intense melody >  0.5000
|   |   |   |   |   |   |   |   |   |   |   |--- class: 1.0
|   |   |   |   |   |   |   |   |--- text::ending >  0.5000
|   |   |   |   |   |   |   |   |   |--- class: 2.0
|   |   |   |   |   |   |   |--- text::feels familiar >  0.5000
|   |   |   |   |   |   |   |   |--- class: 2.0
|   |   |   |   |   |   |--- text::around >  0.5000
|   |   |   |   |   |   |   |--- text::that is <= 0.5000
|   |   |   |   |   |   |   |   |--- class: 1.0
|   |   |   |   |   |   |   |--- text::that is >  0.5000
|   |   |   |   |   |   |   |   |--- class: 1.0
|   |   |   |   |   |--- What season does this art piece remind you of?=Winter >  0.5000
|   |   |   |   |   |   |--- text::me rethink <= 0.5000
|   |   |   |   |   |   |   |--- text::glance <= 0.5000
|   |   |   |   |   |   |   |   |--- intensity_x_objects <= 42.5000
|   |   |   |   |   |   |   |   |   |--- class: 1.0
|   |   |   |   |   |   |   |   |--- intensity_x_objects >  42.5000
|   |   |   |   |   |   |   |   |   |--- text::the occasional <= 0.5000
|   |   |   |   |   |   |   |   |   |   |--- text::calm <= 0.5000
|   |   |   |   |   |   |   |   |   |   |   |--- truncated branch of depth 4
|   |   |   |   |   |   |   |   |   |   |--- text::calm >  0.5000
|   |   |   |   |   |   |   |   |   |   |   |--- truncated branch of depth 2
|   |   |   |   |   |   |   |   |   |--- text::the occasional >  0.5000
|   |   |   |   |   |   |   |   |   |   |--- class: 2.0
|   |   |   |   |   |   |   |--- text::glance >  0.5000
|   |   |   |   |   |   |   |   |--- class: 2.0
|   |   |   |   |   |   |--- text::me rethink >  0.5000
|   |   |   |   |   |   |   |--- class: 2.0
|   |   |   |   |--- text::sun >  0.5000
|   |   |   |   |   |--- class: 0.0
|   |--- text::and light >  0.5000
|   |   |--- text::refreshing <= 0.5000
|   |   |   |--- This art piece makes me feel sombre. <= 1.5000
|   |   |   |   |--- intensity_x_colours <= 25.5000
|   |   |   |   |   |--- class: 0.0
|   |   |   |   |--- intensity_x_colours >  25.5000
|   |   |   |   |   |--- class: 1.0
|   |   |   |--- This art piece makes me feel sombre. >  1.5000
|   |   |   |   |--- class: 0.0
|   |   |--- text::refreshing >  0.5000
|   |   |   |--- class: 0.0
|--- text::matcha >  0.5000
|   |--- class: 0.0
