|--- text::gentle <= 0.5000
|   |--- text::strawberry <= 0.5000
|   |   |--- text::memories <= 0.5000
|   |   |   |--- What season does this art piece remind you of?=Summer <= 0.5000
|   |   |   |   |--- text::me feel <= 0.5000
|   |   |   |   |   |--- text::greens <= 0.5000
|   |   |   |   |   |   |--- objects <= 3.5000
|   |   |   |   |   |   |   |--- This art piece makes me feel calm. <= 3.5000
|   |   |   |   |   |   |   |   |--- text::weird and <= 0.5000
|   |   |   |   |   |   |   |   |   |--- text::happy <= 0.5000
|   |   |   |   |   |   |   |   |   |   |--- text::comforting at <= 0.5000
|   |   |   |   |   |   |   |   |   |   |   |--- truncated branch of depth 22
|   |   |   |   |   |   |   |   |   |   |--- text::comforting at >  0.5000
|   |   |   |   |   |   |   |   |   |   |   |--- class: 1.0
|   |   |   |   |   |   |   |   |   |--- text::happy >  0.5000
|   |   |   |   |   |   |   |   |   |   |--- text::song <= 0.5000
|   |   |   |   |   |   |   |   |   |   |   |--- class: 1.0
|   |   |   |   |   |   |   |   |   |   |--- text::song >  0.5000
|   |   |   |   |   |   |   |   |   |   |   |--- class: 1.0
|   |   |   |   |   |   |   |   |--- text::weird and >  0.5000
|   |   |   |   |   |   |   |   |   |--- class: 2.0
|   |   |   |   |   |   |   |--- This art piece makes me feel calm. >  3.5000
|   |   |   |   |   |   |   |   |--- objects <= 1.5000
|   |   |   |   |   |   |   |   |   |--- What season does this art piece remind you of?=Spring <= 0.5000
|   |   |   |   |   |   |   |   |   |   |--- text::kinda <= 0.5000
|   |   |   |   |   |   |   |   |   |   |   |--- truncated branch of depth 5
|   |   |   |   |   |   |   |   |   |   |--- text::kinda >  0.5000
|   |   |   |   |   |   |   |   |   |   |   |--- class: 2.0
|   |   |   |   |   |   |   |   |   |--- What season does this art piece remind you of?=Spring >  0.5000
|   |   |   |   |   |   |   |   |   |   |--- text::your <= 0.5000
|   |   |   |   |   |   |   |   |   |   |   |--- class: 0.0
|   |   |   |   |   |   |   |   |   |   |--- text::your >  0.5000
|   |   |   |   |   |   |   |   |   |   |   |--- class: 0.0
|   |   |   |   |   |   |   |   |--- objects >  1.5000
|   |   |   |   |   |   |   |   |   |--- text::ice cream <= 0.5000
|   |   |   |   |   |   |   |   |   |   |--- text::salad happy <= 0.5000
|   |   |   |   |   |   |   |   |   |   |   |--- truncated branch of depth 23
|   |   |   |   |   |   |   |   |   |   |--- text::salad happy >  0.5000
|   |   |   |   |   |   |   |   |   |   |   |--- class: 0.0
|   |   |   |   |   |   |   |   |   |--- text::ice cream >  0.5000
|   |   |   |   |   |   |   |   |   |   |--- text::feel <= 0.5000
|   |   |   |   |   |   |   |   |   |   |   |--- class: 1.0
|   |   |   |   |   |   |   |   |   |   |--- text::feel >  0.5000
|   |   |   |   |   |   |   |   |   |   |   |--- class: 1.0
|   |   |   |   |   |   |--- objects >  3.5000
|   |   |   |   |   |   |   |--- text::ramen <= 0.5000
|   |   |   |   |   |   |   |   |--- text::jazz <= 0.5000
|   |   |   |   |   |   |   |   |   |--- This art piece makes me feel sombre. <= 3.5000
|   |   |   |   |   |   |   |   |   |   |--- text::lyrics are <= 0.5000
|   |   |   |   |   |   |   |   |   |   |   |--- truncated branch of depth 20
|   |   |   |   |   |   |   |   |   |   |--- text::lyrics are >  0.5000
|   |   |   |   |   |   |   |   |   |   |   |--- class: 0.0
|   |   |   |   |   |   |   |   |   |--- This art piece makes me feel sombre. >  3.5000
|   |   |   |   |   |   |   |   |   |   |--- text::spiralling <= 0.5000
|   |   |   |   |   |   |   |   |   |   |   |--- truncated branch of depth 20
|   |   |   |   |   |   |   |   |   |   |--- text::spiralling >  0.5000
|   |   |   |   |   |   |   |   |   |   |   |--- truncated branch of depth 2
|   |   |   |   |   |   |   |   |--- text::jazz >  0.5000
|   |   |   |   |   |   |   |   |   |--- log_price <= 5.5069
|   |   |   |   |   |   |   |   |   |   |--- class: 1.0
|   |   |   |   |   |   |   |   |   |--- log_price >  5.5069
|   |   |   |   |   |   |   |   |   |   |--- class: 1.0
|   |   |   |   |   |   |   |--- text::ramen >  0.5000
|   |   |   |   |   |   |   |   |--- class: 1.0
|   |   |   |   |   |--- text::greens >  0.5000
|   |   |   |   |   |   |--- class: 0.0
|   |   |   |   |--- text::me feel >  0.5000
|   |   |   |   |   |--- text::from nature <= 0.5000
|   |   |   |   |   |   |--- text::in life <= 0.5000
|   |   |   |   |   |   |   |--- text::well <= 0.5000
|   |   |   |   |   |   |   |   |--- This art piece makes me feel calm. <= 3.5000
|   |   |   |   |   |   |   |   |   |--- colours <= 3.5000
|   |   |   |   |   |   |   |   |   |   |--- colours_x_objects <= 9.5000
|   |   |   |   |   |   |   |   |   |   |   |--- truncated branch of depth 10
|   |   |   |   |   |   |   |   |   |   |--- colours_x_objects >  9.5000
|   |   |   |   |   |   |   |   |   |   |   |--- truncated branch of depth 4
|   |   |   |   |   |   |   |   |   |--- colours >  3.5000
|   |   |   |   |   |   |   |   |   |   |--- text::try <= 0.5000
|   |   |   |   |   |   |   |   |   |   |   |--- truncated branch of depth 18
|   |   |   |   |   |   |   |   |   |   |--- text::try >  0.5000
|   |   |   |   |   |   |   |   |   |   |   |--- truncated branch of depth 2
|   |   |   |   |   |   |   |   |--- This art piece makes me feel calm. >  3.5000
|   |   |   |   |   |   |   |   |   |--- text::time <= 0.5000
|   |   |   |   |   |   |   |   |   |   |--- objects <= 1.5000
|   |   |   |   |   |   |   |   |   |   |   |--- truncated branch of depth 7
|   |   |   |   |   |   |   |   |   |   |--- objects >  1.5000
|   |   |   |   |   |   |   |   |   |   |   |--- truncated branch of depth 21
|   |   |   |   |   |   |   |   |   |--- text::time >  0.5000
|   |   |   |   |   |   |   |   |   |   |--- text::through <= 0.5000
|   |   |   |   |   |   |   |   |   |   |   |--- truncated branch of depth 4
|   |   |   |   |   |   |   |   |   |   |--- text::through >  0.5000
|   |   |   |   |   |   |   |   |   |   |   |--- class: 1.0
|   |   |   |   |   |   |   |--- text::well >  0.5000
|   |   |   |   |   |   |   |   |--- text::yet <= 0.5000
|   |   |   |   |   |   |   |   |   |--- text::sounds <= 0.5000
|   |   |   |   |   |   |   |   |   |   |--- class: 0.0
|   |   |   |   |   |   |   |   |   |--- text::sounds >  0.5000
|   |   |   |   |   |   |   |   |   |   |--- class: 0.0
|   |   |   |   |   |   |   |   |--- text::yet >  0.5000
|   |   |   |   |   |   |   |   |   |--- class: 1.0
|   |   |   |   |   |   |--- text::in life >  0.5000
|   |   |   |   |   |   |   |--- class: 0.0
|   |   |   |   |   |--- text::from nature >  0.5000
|   |   |   |   |   |   |--- class: 0.0
|   |   |   |--- What season does this art piece remind you of?=Summer >  0.5000
|   |   |   |   |--- text::seem <= 0.5000
|   |   |   |   |   |--- text::happy and <= 0.5000
|   |   |   |   |   |   |--- text::chocolate <= 0.5000
|   |   |   |   |   |   |   |--- text::makes me <= 0.5000
|   |   |   |   |   |   |   |   |--- intensity_x_objects <= 13.0000
|   |   |   |   |   |   |   |   |   |--- text::miso <= 0.5000
|   |   |   |   |   |   |   |   |   |   |--- text::piano maybe <= 0.5000
|   |   |   |   |   |   |   |   |   |   |   |--- truncated branch of depth 19
|   |   |   |   |   |   |   |   |   |   |--- text::piano maybe >  0.5000
|   |   |   |   |   |   |   |   |   |   |   |--- class: 0.0
|   |   |   |   |   |   |   |   |   |--- text::miso >  0.5000
|   |   |   |   |   |   |   |   |   |   |--- class: 1.0
|   |   |   |   |   |   |   |   |--- intensity_x_objects >  13.0000
|   |   |   |   |   |   |   |   |   |--- If you could purchase this painting, which room would you put that painting in?=Bedroom <= 0.5000
|   |   |   |   |   |   |   |   |   |   |--- text::feeling of <= 0.5000
|   |   |   |   |   |   |   |   |   |   |   |--- truncated branch of depth 19
|   |   |   |   |   |   |   |   |   |   |--- text::feeling of >  0.5000
|   |   |   |   |   |   |   |   |   |   |   |--- truncated branch of depth 2
|   |   |   |   |   |   |   |   |   |--- If you could purchase this painting, which room would you put that painting in?=Bedroom >  0.5000
|   |   |   |   |   |   |   |   |   |   |--- colours <= 5.5000
|   |   |   |   |   |   |   |   |   |   |   |--- truncated branch of depth 20
|   |   |   |   |   |   |   |   |   |   |--- colours >  5.5000
|   |   |   |   |   |   |   |   |   |   |   |--- truncated branch of depth 8
|   |   |   |   |   |   |   |--- text::makes me >  0.5000
|   |   |   |   |   |   |   |   |--- text::like time <= 0.5000
|   |   |   |   |   |   |   |   |   |--- text::night <= 0.5000
|   |   |   |   |   |   |   |   |   |   |--- text::sleepy <= 0.5000
|   |   |   |   |   |   |   |   |   |   |   |--- truncated branch of depth 26
|   |   |   |   |   |   |   |   |   |   |--- text::sleepy >  0.5000
|   |   |   |   |   |   |   |   |   |   |   |--- truncated branch of depth 3
|   |   |   |   |   |   |   |   |   |--- text::night >  0.5000
|   |   |   |   |   |   |   |   |   |   |--- text::strings <= 0.5000
|   |   |   |   |   |   |   |   |   |   |   |--- class: 1.0
|   |   |   |   |   |   |   |   |   |   |--- text::strings >  0.5000
|   |   |   |   |   |   |   |   |   |   |   |--- class: 1.0
|   |   |   |   |   |   |   |   |--- text::like time >  0.5000
|   |   |   |   |   |   |   |   |   |--- class: 2.0
|   |   |   |   |   |   |--- text::chocolate >  0.5000
|   |   |   |   |   |   |   |--- class: 1.0
|   |   |   |   |   |--- text::happy and >  0.5000
|   |   |   |   |   |   |--- text::paired with <= 0.5000
|   |   |   |   |   |   |   |--- colours_x_objects <= 7.0000
|   |   |   |   |   |   |   |   |--- class: 0.0
|   |   |   |   |   |   |   |--- colours_x_objects >  7.0000
|   |   |   |   |   |   |   |   |--- text::slow classical <= 0.5000
|   |   |   |   |   |   |   |   |   |--- If you could view this art in person, who would you want to view it with?=Strangers <= 0.5000
|   |   |   |   |   |   |   |   |   |   |--- class: 1.0
|   |   |   |   |   |   |   |   |   |--- If you could view this art in person, who would you want to view it with?=Strangers >  0.5000
|   |   |   |   |   |   |   |   |   |   |--- text::very upbeat <= 0.5000
|   |   |   |   |   |   |   |   |   |   |   |--- truncated branch of depth 4
|   |   |   |   |   |   |   |   |   |   |--- text::very upbeat >  0.5000
|   |   |   |   |   |   |   |   |   |   |   |--- class: 0.0
|   |   |   |   |   |   |   |   |--- text::slow classical >  0.5000
|   |   |   |   |   |   |   |   |   |--- class: 0.0
|   |   |   |   |   |   |--- text::paired with >  0.5000
|   |   |   |   |   |   |   |--- class: 1.0
|   |   |   |   |--- text::seem >  0.5000
|   |   |   |   |   |--- class: 2.0
|   |   |--- text::memories >  0.5000
|   |   |   |--- text::time <= 0.5000
|   |   |   |   |--- text::to tell <= 0.5000
|   |   |   |   |   |--- intensity <= 5.5000
|   |   |   |   |   |   |--- class: 0.0
|   |   |   |   |   |--- intensity >  5.5000
|   |   |   |   |   |   |--- text::just reminds <= 0.5000
|   |   |   |   |   |   |   |--- class: 1.0
|   |   |   |   |   |   |--- text::just reminds >  0.5000
|   |   |   |   |   |   |   |--- class: 0.0
|   |   |   |   |--- text::to tell >  0.5000
|   |   |   |   |   |--- class: 2.0
|   |   |   |--- text::time >  0.5000
|   |   |   |   |--- class: 2.0
|   |--- text::strawberry >  0.5000
|   |   |--- text::that <= 0.5000
|   |   |   |--- If you could view this art in person, who would you want to view it with?=Strangers <= 0.5000
|   |   |   |   |--- text::the background <= 0.5000
|   |   |   |   |   |--- class: 0.0
|   |   |   |   |--- text::the background >  0.5000
|   |   |   |   |   |--- class: 0.0
|   |   |   |--- If you could view this art in person, who would you want to view it with?=Strangers >  0.5000
|   |   |   |   |--- text::calm <= 0.5000
|   |   |   |   |   |--- text::vivaldi spring <= 0.5000
|   |   |   |   |   |   |--- class: 1.0
|   |   |   |   |   |--- text::vivaldi spring >  0.5000
|   |   |   |   |   |   |--- class: 0.0
|   |   |   |   |--- text::calm >  0.5000
|   |   |   |   |   |--- class: 0.0
|   |   |--- text::that >  0.5000
|   |   |   |--- class: 1.0
|--- text::gentle >  0.5000
|   |--- text::when <= 0.5000
|   |   |--- text::it feel <= 1.5000
|   |   |   |--- text::becoming <= 0.5000
|   |   |   |   |--- intensity_x_objects <= 27.5000
|   |   |   |   |   |--- If you could purchase this painting, which room would you put that painting in?=Bedroom <= 0.5000
|   |   |   |   |   |   |--- class: 0.0
|   |   |   |   |   |--- If you could purchase this painting, which room would you put that painting in?=Bedroom >  0.5000
|   |   |   |   |   |   |--- text::quiet <= 1.5000
|   |   |   |   |   |   |   |--- text::flute <= 0.5000
|   |   |   |   |   |   |   |   |--- text::mellow <= 0.5000
|   |   |   |   |   |   |   |   |   |--- class: 0.0
|   |   |   |   |   |   |   |   |--- text::mellow >  0.5000
|   |   |   |   |   |   |   |   |   |--- class: 1.0
|   |   |   |   |   |   |   |--- text::flute >  0.5000
|   |   |   |   |   |   |   |   |--- class: 1.0
|   |   |   |   |   |   |--- text::quiet >  1.5000
|   |   |   |   |   |   |   |--- class: 2.0
|   |   |   |   |--- intensity_x_objects >  27.5000
|   |   |   |   |   |--- text::sit and <= 0.5000
|   |   |   |   |   |   |--- If you could purchase this painting, which room would you put that painting in?__count <= 2.0000
|   |   |   |   |   |   |   |--- text::refreshing and <= 0.5000
|   |   |   |   |   |   |   |   |--- text::and fall <= 0.5000
|   |   |   |   |   |   |   |   |   |--- text::rhythms <= 0.5000
|   |   |   |   |   |   |   |   |   |   |--- text::underneath <= 0.5000
|   |   |   |   |   |   |   |   |   |   |   |--- class: 2.0
|   |   |   |   |   |   |   |   |   |   |--- text::underneath >  0.5000
|   |   |   |   |   |   |   |   |   |   |   |--- class: 1.0
|   |   |   |   |   |   |   |   |   |--- text::rhythms >  0.5000
|   |   |   |   |   |   |   |   |   |   |--- class: 2.0
|   |   |   |   |   |   |   |   |--- text::and fall >  0.5000
|   |   |   |   |   |   |   |   |   |--- class: 1.0
|   |   |   |   |   |   |   |--- text::refreshing and >  0.5000
|   |   |   |   |   |   |   |   |--- class: 0.0
|   |   |   |   |   |   |--- If you could purchase this painting, which room would you put that painting in?__count >  2.0000
|   |   |   |   |   |   |   |--- class: 1.0
|   |   |   |   |   |--- text::sit and >  0.5000
|   |   |   |   |   |   |--- class: 0.0
|   |   |   |--- text::becoming >  0.5000
|   |   |   |   |--- class: 2.0
|   |   |--- text::it feel >  1.5000
|   |   |   |--- class: 1.0
|   |--- text::when >  0.5000
|   |   |--- class: 1.0
